#define KERNEL_TYPE_    0
#define GAMMA1_         0.0f
#define SVS_            100
# define COEF_DIM_      1
# define F_DIM_             4
# define N_CLASS_       2
# define N_DEC_VALUES_  100
#include <stdio.h>

float data_model_dram[SVS_*F_DIM_] = {
    3.899899959564209,1.7339999675750732,1.601099967956543,0.9676499962806702,
    -0.7746099829673767,-1.8767999410629272,2.4022998809814453,1.1318999528884888,
    0.3901199996471405,-0.14279000461101532,-0.03199400007724762,0.3508400022983551,
    4.728499889373779,2.1064999103546143,-0.283050000667572,1.5625,4.055200099945068,0.40143001079559326,1.4563000202178955,0.6534299850463867,4.044600009918213,11.174099922180176,-4.3582000732421875,-4.740099906921387,3.9479000568389893,-3.7723000049591064,2.882999897003174,0.019812999293208122,2.017699956893921,1.798200011253357,-2.9581000804901123,0.20990000665187836,-0.2335599958896637,3.240499973297119,-3.0669000148773193,-2.77839994430542,3.6666998863220215,4.302000045776367,0.5592300295829773,0.337909996509552,-2.733799934387207,0.4552299976348877,2.4391000270843506,0.21765999495983124,3.476900100708008,-0.15313999354839325,2.5299999713897705,2.44950008392334,-2.1979000568389893,-2.125200033187866,1.7151000499725342,0.4517099857330322,0.04917500168085098,6.143700122833252,1.7827999591827393,-0.7211300134658813,0.3356499969959259,6.836900234222412,0.6971799731254578,-0.55690997838974,3.9899001121520996,-2.7065999507904053,2.3945999145507812,0.8629099726676941,-1.2791999578475952,2.1375999450683594,-0.4758400022983551,-1.3974000215530396,-2.2183001041412354,-1.253999948501587,2.9986000061035156,0.3637799918651581,-2.291800022125244,-7.256999969482422,7.959700107574463,0.9211000204086304,4.8368000984191895,10.013199806213379,-4.32390022277832,-4.327600002288818,3.5829999446868896,-3.797100067138672,3.4391000270843506,-0.12500999867916107,-0.006891900207847357,9.293100357055664,-0.4124299883842468,-1.9637999534606934,3.8027000427246094,0.8152899742126465,2.104099988937378,1.0245000123977661,4.010200023651123,10.656800270080566,-4.138800144195557,-5.064599990844727,4.096199989318848,10.18910026550293,-3.932300090789795,-4.182700157165527,1.4895999431610107,3.428800106048584,-4.030900001525879,-1.4258999824523926,2.8261001110076904,9.400699615478516,-3.3034000396728516,-1.0508999824523926,4.363399982452393,0.46351000666618347,1.4280999898910522,2.02020001411438,3.773099899291992,7.207300186157227,-1.681399941444397,-0.9474200010299683,0.5195000171661377,-3.2632999420166016,3.0894999504089355,-0.9848999977111816,0.274509996175766,9.218600273132324,-3.28629994392395,-4.844799995422363,1.7452000379562378,4.802800178527832,2.0878000259399414,0.6262699961662292,0.8951200246810913,4.773799896240234,-4.843100070953369,-5.59089994430542,-3.098599910736084,-10.460200309753418,8.971699714660645,-2.3427000045776367,4.032899856567383,0.2317499965429306,0.8908200263977051,1.1822999715805054,-1.8219000101089478,-6.882400035858154,5.468100070953369,0.05731299892067909,1.356600046157837,4.235799789428711,2.1340999603271484,0.32109999656677246,0.5982300043106079,3.501199960708618,-3.9795000553131104,-1.78410005569458,1.4378000497817993,0.6683700084686279,-2.026700019836426,1.0270999670028687,0.06612899899482727,2.4914000034332275,-2.9400999546051025,-0.6215599775314331,-2.6863999366760254,-0.09726499766111374,0.6166300177574158,0.061191998422145844,-1.3906999826431274,-1.378100037574768,2.305500030517578,-0.0215659998357296,3.3951001167297363,1.1483999490737915,2.1401000022888184,2.086199998855591,-1.083299994468689,-0.3124699890613556,1.281499981880188,0.41291001439094543,2.729599952697754,2.8701000213623047,0.5112400054931641,0.5098999738693237,2.5067999362945557,1.1588000059127808,3.9249000549316406,0.12585000693798065,-1.1858999729156494,-1.2518999576568604,2.2634999752044678,0.7723900079727173,6.563300132751465,9.818699836730957,-4.411300182342529,-3.225800037384033,-1.7582000494003296,2.7397000789642334,-2.5322999954223633,-2.2339999675750732,2.0139000415802,6.141600131988525,0.37929001450538635,0.569379985332489,2.805000066757202,0.5773199796676636,1.3423999547958374,1.2132999897003174,1.507699966430664,1.9595999717712402,-3.0583999156951904,-0.1224299967288971,3.9261999130249023,6.029900074005127,-2.0155999660491943,-0.06553100049495697,-0.6329799890518188,-5.127699851989746,4.562399864196777,1.479699969291687,3.5769999027252197,2.400399923324585,1.8907999992370605,0.7323099970817566,-1.9982999563217163,-6.6072001457214355,4.825399875640869,-0.419840008020401,0.5705999732017517,-0.024800000712275505,1.2421000003814697,-0.5620999932289124,-2.7913999557495117,1.7733999490737915,6.775599956512451,-0.399150013923645,0.406139999628067,1.3492000102996826,-1.4500999450683594,-0.5594900250434875,2.1319000720977783,-2.040299892425537,2.5573999881744385,-0.06165200099349022,-3.8857998847961426,-12.846099853515625,12.795700073242188,-3.1352999210357666,1.698799967765808,2.90939998626709,2.904400110244751,0.1103300005197525,-3.6012001037597656,-6.538899898529053,10.52340030670166,-0.4896700084209442,1.2246999740600586,8.777899742126465,-2.2135000228881836,-0.8064699769020081,-0.7679399847984314,3.4598000049591064,-3.440500020980835,-3.4275999069213867,0.11806000024080276,0.39107999205589294,-0.982230007648468,0.4284299910068512,-1.771299958229065,-10.766500473022461,10.218400001525879,-1.0042999982833862,1.6426000595092773,3.014899969100952,0.22848999500274658,-0.1469999998807907,0.7376000285148621,4.852499961853027,-4.798600196838379,-5.665900230407715,1.0607000589370728,2.454200029373169,2.5188000202178955,-0.17026999592781067,-3.5985000133514404,-13.659299850463867,17.605199813842773,-2.4927000999450684,1.131700038909912,3.9646999835968018,3.397900104522705,0.8435099720954895,2.896899938583374,0.7076799869537354,2.2899999618530273,1.8662999868392944,5.740300178527832,-0.44284000992774963,0.3801499903202057,1.3762999773025513,-2.546299934387207,3.110100030899048,-0.8322799801826477,-3.035799980163574,-1.5448999404907227,-10.149800300598145,9.61520004272461,-1.233199954032898,4.192699909210205,-3.267400026321411,2.583899974822998,0.21765999495983124,-2.978600025177002,2.3445000648498535,0.526669979095459,-0.4017300009727478,5.275599956512451,0.1386300027370453,0.12138000130653381,1.1434999704360962,0.5022500157356262,0.6538800001144409,-1.1792999505996704,0.39998000860214233,2.2504000663757324,3.575700044631958,0.35273000597953796,0.28360000252723694,1.2616000175476074,4.430300235748291,-1.3335000276565552,-1.7517000436782837,2.852099895477295,9.170999526977539,-3.6461000442504883,-1.204699993133545,0.9361100196838379,8.641300201416016,-1.63510000705719,-1.3042999505996704,-1.1188000440597534,3.335700035095215,-1.3454999923706055,-1.9572999477386475,3.8845999240875244,-3.033600091934204,2.533400058746338,0.20214000344276428,0.42829999327659607,-0.9498100280761719,-1.073099970817566,0.32109999656677246,4.042200088500977,-4.390999794006348,4.746600151062012,1.1369999647140503,-2.1651999950408936,3.0211000442504883,-2.4131999015808105,-2.424099922180176,-3.7572999000549316,-8.291600227355957,10.303199768066406,0.3805899918079376,1.1643999814987183,3.809499979019165,-4.940800189971924,-4.09089994430542,-0.7784799933433533,3.401900053024292,-3.4858999252319336,-3.5569000244140625,4.433800220489502,9.88700008392334,-4.679500102996826,-3.748300075531006,-1.9666999578475952,11.80519962310791,-0.4047200083732605,-7.8719000816345215,-3.5713000297546387,-12.492199897766113,14.888099670410156,-0.4702700078487396,-0.8205299973487854,0.6518099904060364,-0.48868998885154724,-0.5271599888801575,1.5268000364303589,-5.587100028991699,8.656399726867676,-1.722000002861023,-1.7344000339508057,2.0174999237060547,7.7617998123168945,0.9353200197219849,-3.269200086593628,-12.740599632263184,15.557299613952637,-0.1418199986219406,0.32923999428749084,-4.4552001953125,4.571800231933594,-0.9887999892234802,};
static float X_ref_dram[COEF_DIM_*F_DIM_] = {0.0};
float sv_coef_dram[COEF_DIM_*F_DIM_] = {-2.120725393295288,-1.3129664659500122,-1.5585342645645142,-0.14641492068767548,};
float bias_dram[1] = {1.4692883491516113,};
