#define KERNEL_TYPE_    2
#define GAMMA1_         0.024993896484375
#define SVS_            100
# define COEF_DIM_      97
# define F_DIM_             4
# define N_CLASS_       2
# define N_DEC_VALUES_  100
#include <stdio.h>

float data_model_dram[SVS_*F_DIM_] = {4.216400146484375,9.460700035095215,-4.928800106048584,-5.236599922180176,4.258600234985352,11.296199798583984,-4.094299793243408,-4.345699787139893,1.131500005722046,7.921199798583984,1.093000054359436,-2.844399929046631,0.5414999723434448,6.031899929046631,1.6825000047683716,-0.46121999621391296,-0.7746099829673767,-1.8767999410629272,2.4022998809814453,1.1318999528884888,2.39520001411438,9.508299827575684,-3.178299903869629,-3.0085999965667725,0.32919999957084656,-4.4552001953125,4.571800231933594,-0.9887999892234802,1.0134999752044678,8.455100059509277,-1.6720000505447388,-2.0815000534057617,-3.7746999263763428,2.516200065612793,0.8334100246429443,-0.3099299967288971,-1.8186999559402466,-9.036600112915039,9.016200065612793,-0.1224299967288971,0.5982300043106079,3.501199960708618,-3.9795000553131104,-1.78410005569458,-5.385700225830078,9.121399879455566,-0.4192900061607361,-5.918099880218506,4.559700012207031,-2.421099901199341,2.6412999629974365,1.6167999505996704,-3.50600004196167,-12.566699981689453,15.160599708557129,-0.7521600127220154,2.422600030899048,-4.575200080871582,5.947000026702881,0.2150699943304062,2.8208999633789062,7.310800075531006,-0.8185700178146362,-1.8783999681472778,-2.455399990081787,-9.04069995880127,8.862000465393066,-0.8698300123214722,-4.002500057220459,-13.497900009155273,17.677200317382812,-3.320199966430664,-0.3650600016117096,2.8928000926971436,-3.6461000442504883,-3.06030011177063,-0.8980900049209595,-4.486199855804443,2.200900077819824,0.5073099732398987,-3.3603999614715576,-0.3269599974155426,2.1324000358581543,0.6017000079154968,0.7376000285148621,4.852499961853027,-4.798600196838379,-5.665900230407715,3.9660000801086426,3.921299934387207,0.7057399749755859,0.3366200029850006,-1.2568000555038452,-1.4732999801635742,2.871799945831299,0.4465300142765045,4.407199859619141,-0.07036499679088593,2.041599988937378,1.1318999528884888,4.055200099945068,-2.4583001136779785,2.280600070953369,1.0322999954223633,-0.0012852000072598457,0.1386300027370453,-0.19651000201702118,0.008175400085747242,4.676499843597412,-3.3894999027252197,3.4895999431610107,1.4771000146865845,1.6348999738693237,3.2860000133514404,2.8752999305725098,0.08705399930477142,1.8372999429702759,6.129199981689453,0.8402699828147888,0.5525699853897095,-2.6863999366760254,-0.09726499766111374,0.6166300177574158,0.061191998422145844,4.545899868011475,8.167400360107422,-2.4586000442504883,-1.4621000289916992,-0.7828900218009949,11.360300064086914,-0.37643998861312866,-7.049499988555908,3.9102001190185547,6.065000057220459,-2.453399896621704,-0.6823400259017944,4.152900218963623,-3.935800075531006,2.863300085067749,-0.01768600009381771,1.2246999740600586,8.777899742126465,-2.2135000228881836,-0.8064699769020081,2.7365000247955322,-5.03249979019165,6.660799980163574,-0.5788900256156921,2.2290000915527344,9.632499694824219,-3.112299919128418,-2.716399908065796,-3.8203001022338867,-13.055100440979004,16.95829963684082,-2.3052000999450684,-2.9019999504089355,-7.656300067901611,11.83180046081543,-0.8426799774169922,2.1751999855041504,-0.8090999722480774,5.102200031280518,-0.6797500252723694,3.063199996948242,-3.3315000534057617,5.130499839782715,0.82669997215271,-3.1273000240325928,-7.112100124359131,11.389699935913086,-0.08363399654626846,1.570099949836731,7.912899971008301,0.2901799976825714,-2.1953001022338867,0.21431000530719757,-0.6952900290489197,0.8771100044250488,0.29653000831604004,-2.4941000938415527,3.5446999073028564,-1.3720999956130981,-2.848299980163574,-2.0631000995635986,-1.5147000551223755,1.218999981880188,0.44523999094963074,0.5081300139427185,0.4779900014400482,-1.9803999662399292,0.5771399736404419,-2.4725000858306885,-0.4014500081539154,1.4854999780654907,1.118899941444397,0.025012999773025513,3.3998000621795654,-4.432700157165527,-4.265500068664551,-2.6285998821258545,0.18002000451087952,1.7956000566482544,0.972819983959198,-2.2339999675750732,-7.031400203704834,7.493599891662598,0.6133400201797485,4.985199928283691,8.35159969329834,-2.5425000190734863,-1.2822999954223633,0.8725600242614746,9.293100357055664,-0.7843000292778015,-2.1977999210357666,-0.6432600021362305,2.4748001098632812,-2.945199966430664,-1.0276000499725342,-0.4994800090789795,1.7733999490737915,-2.2469000816345215,-0.6810399889945984,2.2091000080108643,7.455599784851074,-1.3284000158309937,-3.3020999431610107,-1.2537000179290771,10.88029956817627,1.930999994277954,-4.323699951171875,-0.8147900104522705,-5.738100051879883,4.391900062561035,0.32109999656677246,1.0234999656677246,6.901000022888184,-2.006200075149536,-2.7125000953674316,2.3164000511169434,-2.628000020980835,3.152899980545044,-0.08622000366449356,-1.080199956893921,2.1995999813079834,-2.586199998855591,-1.2759000062942505,2.2428998947143555,-4.1427001953125,5.23330020904541,-0.4017300009727478,-2.351799964904785,-4.835899829864502,6.647900104522705,-0.06035799905657768,3.024199962615967,-3.3378000259399414,2.5864999294281006,-0.5478500127792358,0.964139997959137,5.616000175476074,2.2137999534606934,-0.12500999867916107,1.3264000415802002,1.0326000452041626,5.656599998474121,-0.4133700132369995,-2.3410000801086426,12.378399848937988,0.7040299773216248,-7.583600044250488,2.916300058364868,10.830599784851074,-3.3436999320983887,-4.122000217437744,4.002600193023682,-3.5943000316619873,3.557300090789795,0.26809000968933105,-0.835349977016449,0.8049399852752686,-1.6411000490188599,-0.19224999845027924,0.5195000171661377,-3.2632999420166016,3.0894999504089355,-0.9848999977111816,-2.913800001144409,-9.471099853515625,9.766799926757812,-0.6021599769592285,1.3561999797821045,3.213599920272827,4.346499919891357,0.786620020866394,-1.7582000494003296,2.7397000789642334,-2.5322999954223633,-2.2339999675750732,2.0597000122070312,-0.9932600259780884,5.211900234222412,-0.29311999678611755,3.543800115585327,1.2395000457763672,1.996999979019165,2.1547000408172607,0.7780500054359436,6.642399787902832,-1.1425000429153442,-1.0572999715805054,4.3846001625061035,-4.87939977645874,3.3661999702453613,-0.02932400070130825,3.3756000995635986,-4.095099925994873,4.367000102996826,1.0698000192642212,-4.946199893951416,3.5715999603271484,0.8274199962615967,-1.4957000017166138,-2.647900104522705,10.137399673461914,-1.3309999704360962,-5.470699787139893,-2.0754001140594482,1.2767000198364258,-0.6420599818229675,-1.26419997215271,-1.8969000577926636,-6.789299964904785,5.276100158691406,-0.325439989566803,2.8261001110076904,9.400699615478516,-3.3034000396728516,-1.0508999824523926,-3.6012001037597656,-6.538899898529053,10.52340030670166,-0.4896700084209442,-3.269200086593628,-12.740599632263184,15.557299613952637,-0.1418199986219406,3.9363999366760254,10.588500022888184,-3.7249999046325684,-4.313300132751465,-0.9131799936294556,-2.0113000869750977,-0.19564999639987946,0.06636500358581543,-3.805299997329712,2.427299976348877,0.680899977684021,-1.0871000289916992,0.11032000184059143,1.9740999937057495,-3.36680006980896,-0.6525899767875671,3.5761001110076904,9.775300025939941,-3.9795000553131104,-3.4637999534606934,-2.4560000896453857,-0.24417999386787415,1.404099941253662,-0.4586299955844879,3.9479000568389893,-3.7723000049591064,2.882999897003174,0.019812999293208122,-1.266700029373169,2.8183000087738037,-2.4260001182556152,-1.886199951171875,3.489300012588501,6.690000057220459,-1.204200029373169,-0.3875100016593933,0.8951200246810913,4.773799896240234,-4.843100070953369,-5.59089994430542,5.26200008392334,3.9834001064300537,-1.5571999549865723,1.0103000402450562,-4.855400085449219,-5.90369987487793,10.981800079345703,-0.8219900131225586,4.56790018081665,3.1928999423980713,-2.1054999828338623,0.29653000831604004,};
static float X_ref_dram[COEF_DIM_*F_DIM_] = {5.306300163269043,5.268400192260742,-2.890399932861328,-0.5271599888801575,-2.0285000801086426,3.8468000888824463,-0.6343500018119812,-1.1749999523162842,0.030218999832868576,-1.051200032234192,1.402400016784668,0.7736899852752686,0.3798399865627289,0.7097499966621399,0.7571600079536438,-0.4444099962711334,-2.982100009918213,4.198599815368652,-0.5898000001907349,-3.964200019836426,0.6636499762535095,-0.04553300142288208,-0.18794000148773193,0.23446999490261078,0.5705999732017517,-0.024800000712275505,1.2421000003814697,-0.5620999932289124,5.438000202178955,9.466899871826172,-4.941699981689453,-3.9202001094818115,3.2414000034332275,0.40970999002456665,1.4014999866485596,1.195199966430664,2.391700029373169,4.55649995803833,-4.988800048828125,-2.898699998855591,0.6365500092506409,5.202199935913086,-5.21589994430542,-6.121099948883057,2.1942999362945557,4.550300121307373,-4.97599983215332,-2.725399971008301,-1.9966000318527222,-9.500100135803223,9.682000160217285,-0.1288899928331375,0.3180299997329712,-0.9932600259780884,1.0946999788284302,0.8861899971961975,0.3797999918460846,0.7098000049591064,0.7572000026702881,-0.44440001249313354,-4.147900104522705,7.122499942779541,-0.08340399712324142,-6.417200088500977,0.32923999428749084,-4.4552001953125,4.571800231933594,-0.9887999892234802,-2.3429999351501465,12.951600074768066,3.3285000324249268,-5.942599773406982,3.476900100708008,-0.15313999354839325,2.5299999713897705,2.44950008392334,-0.21660999953746796,8.032899856567383,1.8847999572753906,-3.8852999210357666,6.82480001449585,5.218699932098389,-2.5425000190734863,0.5461000204086304,0.32919999957084656,-4.4552001953125,4.571800231933594,-0.9887999892234802,0.3797999918460846,0.7098000049591064,0.7572000026702881,-0.44440001249313354,0.14328999817371368,-1.0885000228881836,1.0039000511169434,0.4879100024700165,-0.7728800177574158,-7.447299957275391,6.492000102996826,0.36118999123573303,-2.647900104522705,10.137399673461914,-1.3309999704360962,-5.470699787139893,0.3901199996471405,-0.14279000461101532,-0.03199400007724762,0.3508400022983551,-2.647900104522705,10.137399673461914,-1.3309999704360962,-5.470699787139893,-7.036399841308594,9.293100357055664,0.16594000160694122,-4.539599895477295,-0.5500800013542175,2.8659000396728516,-1.648800015449524,-2.4319000244140625,-1.8583999872207642,7.886000156402588,-1.6642999649047852,-1.8384000062942505,-3.6960999965667725,-13.677900314331055,17.579500198364258,-2.6180999279022217,-1.0743999481201172,-6.311299800872803,5.355000019073486,0.8047199845314026,-2.7913999557495117,1.7733999490737915,6.775599956512451,-0.399150013923645,-6.577300071716309,6.801700115203857,0.8548300266265869,-7.53439998626709,0.32919999957084656,-4.4552001953125,4.571800231933594,-0.9887999892234802,-1.9555000066757202,0.20691999793052673,1.2473000288009644,-0.37070000171661377,-1.011199951171875,2.9983999729156494,-1.1663999557495117,-1.618499994277954,0.5705999732017517,-0.024800000712275505,1.2421000003814697,-0.5620999932289124,0.5705999732017517,-0.024800000712275505,1.2421000003814697,-0.5620999932289124,0.11686000227928162,3.734999895095825,-4.437900066375732,-4.374100208282471,-1.4375,-1.8624000549316406,4.026000022888184,0.5512700080871582,0.11738999933004379,6.276100158691406,-1.5494999885559082,-2.474600076675415,-2.4839999675750732,12.161100387573242,2.8203999996185303,-3.74180006980896,-1.8583999872207642,7.886000156402588,-1.6642999649047852,-1.8384000062942505,-1.3946000337600708,2.3134000301361084,-0.44499000906944275,-1.4904999732971191,-2.698899984359741,12.198399543762207,0.676609992980957,-8.548199653625488,-0.786899983882904,9.566300392150879,-3.7867000102996826,-7.503399848937988,0.3797999918460846,0.7098000049591064,0.7572000026702881,-0.44440001249313354,-4.486100196838379,-13.288900375366211,17.308700561523438,-3.219399929046631,0.1886799931526184,0.701479971408844,-0.5118200182914734,0.005589200183749199,-1.9922000169754028,11.654199600219727,2.6542000770568848,-5.210700035095215,0.5705999732017517,-0.024840999394655228,1.2421000003814697,-0.5620800256729126,-1.5621000528335571,-2.212100028991699,4.259099960327148,0.2797200083732605,4.429500102996826,-2.3506999015808105,1.704800009727478,0.9094600081443787,1.2616000175476074,4.430300235748291,-1.3335000276565552,-1.7517000436782837,-1.388700008392334,-4.877299785614014,6.477399826049805,0.34178999066352844,-2.2153000831604004,11.962499618530273,0.07853800058364868,-7.785299777984619,-0.4928100109100342,3.060499906539917,-1.8356000185012817,-2.8340001106262207,-3.379300117492676,-13.773099899291992,17.927400588989258,-2.0322999954223633,-3.2304999828338623,-7.213500022888184,11.64330005645752,-0.9461299777030945,-5.881800174713135,7.658400058746338,0.5558000206947327,-2.9154999256134033,0.5705999732017517,-0.024800000712275505,1.2421000003814697,-0.5620999932289124,5.4944000244140625,1.5477999448776245,0.041694000363349915,1.9284000396728516,4.134900093078613,6.118899822235107,-2.4293999671936035,-0.19612999260425568,-3.4916999340057373,-12.173600196838379,14.368900299072266,-0.6163899898529053,0.3797999918460846,0.7098000049591064,0.7572000026702881,-0.44440001249313354,0.32919999957084656,-4.4552001953125,4.571800231933594,-0.9887999892234802,0.5593900084495544,-0.31040000915527344,0.18307000398635864,0.4465300142765045,-5.490099906921387,9.1048002243042,-0.387580007314682,-5.97629976272583,-1.5219999551773071,-6.638299942016602,5.749100208282471,-0.10690999776124954,-4.285900115966797,8.52340030670166,3.13919997215271,-0.9163900017738342,-1.5321999788284302,-5.09660005569458,6.6778998374938965,0.17497999966144562,-5.166100025177002,8.043299674987793,0.04426499828696251,-4.498300075531006,-1.732200026512146,-9.28279972076416,7.718999862670898,-1.7167999744415283,0.37637001276016235,-0.8235800266265869,0.7854300141334534,0.7452399730682373,-1.5951000452041626,-6.572000026702881,4.768899917602539,-0.9435399770736694,-1.7279000282287598,-6.841000080108643,8.949399948120117,0.6805800199508667,-1.2785999774932861,-2.4086999893188477,4.573500156402588,0.47626999020576477,1.0399999618530273,-6.93209981918335,8.288800239562988,-1.2991000413894653,-0.3701300024986267,-5.553999900817871,4.774899959564209,1.5470000505447388,-2.4472999572753906,12.624699592590332,0.735729992389679,-7.661200046539307,-2.7418999671936035,11.403800010681152,2.539400100708008,-5.5792999267578125,-0.04800799861550331,-1.603700041770935,8.475600242614746,0.7555800080299377,4.668900012969971,1.3098000288009644,0.055403999984264374,1.909000039100647,0.3434000015258789,0.12415000051259995,-0.2873300015926361,0.14654000103473663,-0.7868899703025818,9.566300392150879,-3.7867000102996826,-7.503399848937988,-0.786899983882904,9.566300392150879,-3.7867000102996826,-7.503399848937988,6.563300132751465,9.818699836730957,-4.411300182342529,-3.225800037384033,-0.5389999747276306,-5.166999816894531,3.4398999214172363,0.05214099958539009,-0.9732499718666077,-6.416800022125244,5.60260009765625,1.0322999954223633,0.5195000171661377,-3.2632999420166016,3.0894999504089355,-0.9848999977111816,-4.387599945068359,-7.7266998291015625,11.965499877929688,-1.454300045967102,-1.8583999872207642,7.886000156402588,-1.6642999649047852,-1.8384000062942505,-1.695199966430664,1.0657000541687012,8.829400062561035,0.9495499730110168,-0.161080002784729,-6.462399959564209,8.3572998046875,-1.5216000080108643,0.26517000794410706,2.406599998474121,-2.841599941253662,-0.5995799899101257,};
float sv_coef_dram[COEF_DIM_*F_DIM_] = {-0.4138108193874359,1.9992519617080688,2.0,-2.0,1.3877787807814457e-17,2.0,-2.0,-0.8722509741783142,-7.632783294297951e-17,2.0,0.506901741027832,0.10509824007749557,8.673617379884035e-18,1.8186702728271484,-2.0,0.10028062760829926,-1.9787116050720215,-0.02707717753946781,-0.49516257643699646,-1.3877787807814457e-17,-0.2406865954399109,-1.864525556564331,-2.0,2.0,0.9474439024925232,-0.5076735019683838,1.5900745391845703,-0.48104581236839294,8.673617379884035e-17,0.9021647572517395,-1.1822309494018555,7.112366251504909e-17,6.938893903907228e-18,-0.33359867334365845,1.9081958235744878e-17,-1.9939380884170532,6.938893903907228e-18,1.5735559463500977,-2.0,-2.0,2.2551405187698492e-17,0.6594768166542053,-0.4629378020763397,-3.122502256758253e-17,-1.309159755706787,2.0,-1.196768879890442,-0.0391729399561882,-2.0,0.2288111448287964,1.0436842441558838,-1.0408340855860843e-17,-2.0,2.0,-0.0002617589198052883,-2.0,2.0,-4.85722573273506e-17,0.7278163433074951,0.5699192881584167,0.6241966485977173,1.1092976331710815,-2.0,-3.469446951953614e-18,-1.734723475976807e-18,6.938893903907228e-18,-2.0,-0.5885779857635498,2.0,2.0,1.0842021724855044e-18,-1.70321786403656,0.4756271541118622,0.9479466676712036,1.5929925441741943,2.0,0.5131306648254395,4.5102810375396984e-17,2.0,-0.9986504912376404,1.734723475976807e-18,-5.551115123125783e-17,-7.979727989493313e-17,-0.4249803125858307,-3.5561831257524545e-17,2.0,-0.013823656365275383,-0.6201490163803101,-8.673617379884035e-18,1.2206329107284546,1.3877787807814457e-17,-9.71445146547012e-17,3.469446951953614e-18,-0.4898506700992584,-1.0187103748321533,-2.0,2.7755575615628914e-17,};
float bias_dram[1] = {0.11877042800188065,};
