#define KERNEL_TYPE_    2
#define GAMMA1_         0.024993896484375
#define SVS_            100
# define COEF_DIM_      115
# define F_DIM_             4
# define N_CLASS_       2
# define N_DEC_VALUES_  100
#include <stdio.h>

float data_model_dram[SVS_*F_DIM_] = {2.5067999362945557,1.1588000059127808,3.9249000549316406,0.12585000693798065,-2.534600019454956,-0.7739199995994568,3.3601999282836914,0.0017099999822676182,-3.22379994392395,2.7934999465942383,0.32273998856544495,-0.8607800006866455,-2.314199924468994,2.0838000774383545,-0.4681299924850464,-1.6766999959945679,-3.807300090789795,-8.097100257873535,10.177200317382812,0.6508399844169617,3.9921998977661133,-4.467599868774414,3.7304000854492188,-0.10949999839067459,-1.1305999755859375,1.8458000421524048,-1.3574999570846558,-1.3805999755859375,-1.7279000282287598,-6.841000080108643,8.949399948120117,0.6805800199508667,3.802299976348877,-3.8696000576019287,4.044000148773193,0.9534299969673157,-2.5701000690460205,-6.845200061798096,8.999899864196777,2.1352999210357666,-3.7502999305725098,-13.458600044250488,17.59320068359375,-2.777100086212158,2.856100082397461,6.917600154876709,-0.793720006942749,0.48403000831604004,0.9657400250434875,8.392999649047852,-1.3609999418258667,-1.46589994430542,5.722700119018555,5.831200122833252,-2.4096999168395996,-0.2452699989080429,3.024199962615967,-3.3378000259399414,2.5864999294281006,-0.5478500127792358,-2.647900104522705,10.137399673461914,-1.3309999704360962,-5.470699787139893,-3.5797998905181885,0.4593699872493744,2.3457000255584717,-0.4573400020599365,-2.1673998832702637,0.12415000051259995,-1.0464999675750732,-0.8620799779891968,-0.161080002784729,-6.462399959564209,8.3572998046875,-1.5216000080108643,0.6818000078201294,4.850399971008301,-5.2133002281188965,-6.104300022125244,0.8620200157165527,2.6963000297546387,4.290800094604492,0.5473899841308594,1.6449999809265137,7.861199855804443,-0.875980019569397,-3.5569000244140625,-1.2942999601364136,2.6735000610351562,-0.8408499956130981,-2.0322999954223633,1.8314000368118286,6.367199897766113,-0.036277998238801956,0.0495540015399456,4.643899917602539,-3.3729000091552734,2.597599983215332,0.5525699853897095,-4.140900135040283,3.461899995803833,-0.478410005569458,-3.8879001140594482,3.848099946975708,10.153900146484375,-3.856100082397461,-4.222799777984619,2.2279000282287598,4.095099925994873,-4.803699970245361,-2.1112000942230225,-3.380000114440918,-0.7077000141143799,2.5325000286102295,0.7180799841880798,1.1643999814987183,3.809499979019165,-4.940800189971924,-4.09089994430542,0.777649998664856,5.978099822998047,1.194100022315979,-0.35260000824928284,0.9422500133514404,5.856100082397461,1.8761999607086182,-0.325439989566803,5.1128997802734375,-0.4987100064754486,0.6286299824714661,1.118899941444397,-2.4835000038146973,-7.449399948120117,6.896399974822998,-0.6448400020599365,-4.842599868774414,-4.993199825286865,10.405200004577637,-0.5310400128364563,-1.8186999559402466,-9.036600112915039,9.016200065612793,-0.1224299967288971,-1.5219999551773071,-6.638299942016602,5.749100208282471,-0.10690999776124954,1.1471999883651733,3.5985000133514404,1.9386999607086182,-0.4340600073337555,1.679900050163269,4.2067999839782715,-4.53980016708374,-2.3931000232696533,-2.589900016784668,-0.3910999894142151,0.9345200061798096,0.429720014333725,0.5734000205993652,9.19379997253418,-0.9093999862670898,-1.871999979019165,-3.5179998874664307,2.876300096511841,0.15479999780654907,-1.2086000442504883,2.823199987411499,10.851300239562988,-3.1466000080108643,-3.9783999919891357,-2.280400037765503,-0.30625998973846436,1.3346999883651733,1.3762999773025513,1.8592000007629395,3.20740008354187,-0.1596599966287613,-0.26208001375198364,3.9293999671936035,1.4112000465393066,1.8076000213623047,0.897819995880127,2.783099889755249,10.979599952697754,-3.556999921798706,-4.403900146484375,-3.2304999828338623,-7.213500022888184,11.64330005645752,-0.9461299777030945,3.063199996948242,-3.3315000534057617,5.130499839782715,0.82669997215271,0.14782999455928802,7.946000099182129,1.0742000341415405,-3.34089994430542,-2.6863999366760254,-0.09726499766111374,0.6166300177574158,0.061191998422145844,-0.7206799983978271,-6.758299827575684,5.840799808502197,0.6236900091171265,3.108799934387207,3.1122000217437744,0.8085700273513794,0.4336000084877014,4.384799957275391,-3.0729000568389893,3.04229998588562,1.2740999460220337,3.4667000770568848,-4.072400093078613,4.2881999015808105,1.5418000221252441,-3.4916999340057373,-12.173600196838379,14.368900299072266,-0.6163899898529053,-1.3970999717712402,3.3190999031066895,-1.392699956893921,-1.9947999715805054,5.740300178527832,-0.44284000992774963,0.3801499903202057,1.3762999773025513,4.134900093078613,6.118899822235107,-2.4293999671936035,-0.19612999260425568,4.926400184631348,5.495999813079834,-2.477400064468384,-0.5064799785614014,-2.314199924468994,-0.684939980506897,1.983299970626831,-0.44828999042510986,-2.4458000659942627,1.628499984741211,-0.8854100108146667,-1.4802000522613525,2.888000011444092,0.4469600021839142,4.590700149536133,-0.24398000538349152,-1.8553999662399292,-9.603500366210938,7.776400089263916,-0.9771599769592285,-1.4275000095367432,11.87969970703125,0.416130006313324,-6.997799873352051,2.8083999156951904,11.304499626159668,-3.339400053024292,-4.419400215148926,5.937399864196777,6.166399955749512,-2.5905001163482666,-0.36553001403808594,1.0651999711990356,8.368200302124023,-1.4004000425338745,-1.6509000062942505,-2.140500068664551,-0.1676200032234192,1.3209999799728394,-0.20905999839305878,-0.7350999712944031,1.7360999584197998,-1.4938000440597534,-1.1582000255584717,-0.7746099829673767,-1.8767999410629272,2.4022998809814453,1.1318999528884888,4.407199859619141,-0.07036499679088593,2.041599988937378,1.1318999528884888,1.1050000190734863,7.44320011138916,0.41098999977111816,-3.0332000255584717,4.559700012207031,-2.421099901199341,2.6412999629974365,1.6167999505996704,4.103799819946289,-4.8069000244140625,3.349100112915039,-0.492249995470047,3.936199903488159,10.162199974060059,-3.823499917984009,-4.017199993133545,4.564499855041504,-3.627500057220459,2.8684000968933105,0.2771399915218353,2.1881000995635986,2.735599994659424,1.3278000354766846,-0.18320000171661377,-0.7679399847984314,3.4598000049591064,-3.440500020980835,-3.4275999069213867,-1.5227999687194824,-6.478899955749512,5.756800174713135,0.8732500076293945,-0.7799500226974487,3.2321999073028564,-3.2820000648498535,-3.100399971008301,-1.3273999691009521,9.498000144958496,2.4407999515533447,-5.268899917602539,-2.257999897003174,-9.326299667358398,9.372699737548828,-0.8594899773597717,-3.3125,0.10138999670743942,0.5532299876213074,-0.2957000136375427,-1.7344000339508057,2.0174999237060547,7.7617998123168945,0.9353200197219849,0.5593900084495544,-0.31040000915527344,0.18307000398635864,0.4465300142765045,-2.2183001041412354,-1.253999948501587,2.9986000061035156,0.3637799918651581,2.419600009918213,6.4664998054504395,-0.756879985332489,0.2280000001192093,3.358299970626831,10.35669994354248,-3.73009991645813,-3.6991000175476074,-2.495300054550171,11.147199630737305,1.9352999925613403,-3.4637999534606934,4.5447001457214355,8.227399826049805,-2.416599988937378,-1.587499976158142,1.5268000364303589,-5.587100028991699,8.656399726867676,-1.722000002861023,3.5594000816345215,1.307800054550171,1.2910000085830688,1.6555999517440796,-3.6816999912261963,3.223900079727173,-0.6934700012207031,-3.400399923324585,0.3797999918460846,0.7098000049591064,0.7572000026702881,-0.44440001249313354,3.5761001110076904,9.775300025939941,-3.9795000553131104,-3.4637999534606934,0.9297000169754028,-3.797100067138672,4.642899990081787,-0.2957000136375427,4.004700183868408,0.4593699872493744,1.3621000051498413,1.6181000471115112,-1.6513999700546265,-8.498499870300293,9.112199783325195,1.2379000186920166,2.4672999382019043,1.3926000595092773,1.712499976158142,0.4142099916934967,};
static float X_ref_dram[COEF_DIM_*F_DIM_] = {6.563300132751465,9.818699836730957,-4.411300182342529,-3.225800037384033,0.32919999957084656,-4.4552001953125,4.571800231933594,-0.9887999892234802,-0.36024999618530273,-4.448999881744385,2.1066999435424805,0.9430800080299377,-4.195799827575684,-8.181900024414062,12.12909984588623,-1.601699948310852,0.5705999732017517,-0.024800000712275505,1.2421000003814697,-0.5620999932289124,0.3434000015258789,0.12415000051259995,-0.2873300015926361,0.14654000103473663,-1.5621000528335571,-2.212100028991699,4.259099960327148,0.2797200083732605,-5.881800174713135,7.658400058746338,0.5558000206947327,-2.9154999256134033,1.2616000175476074,4.430300235748291,-1.3335000276565552,-1.7517000436782837,0.37637001276016235,-0.8235800266265869,0.7854300141334534,0.7452399730682373,-2.7913999557495117,1.7733999490737915,6.775599956512451,-0.399150013923645,-1.695199966430664,1.0657000541687012,8.829400062561035,0.9495499730110168,-1.788599967956543,-6.348599910736084,5.6153998374938965,0.42583999037742615,5.438000202178955,9.466899871826172,-4.941699981689453,-3.9202001094818115,-3.269200086593628,-12.740599632263184,15.557299613952637,-0.1418199986219406,-3.563699960708618,-8.382699966430664,12.392999649047852,-1.2822999954223633,-2.6405999660491943,-4.415900230407715,5.982999801635742,-0.13923999667167664,3.7757999897003174,7.178299903869629,-1.5195000171661377,0.4012799859046936,0.5195000171661377,-3.2632999420166016,3.0894999504089355,-0.9848999977111816,-1.3946000337600708,2.3134000301361084,-0.44499000906944275,-1.4904999732971191,0.6365500092506409,5.202199935913086,-5.21589994430542,-6.121099948883057,0.7405400276184082,0.36625000834465027,2.199199914932251,0.48403000831604004,-5.480800151824951,8.181900024414062,0.27818000316619873,-5.032299995422363,0.32919999957084656,-4.4552001953125,4.571800231933594,-0.9887999892234802,-0.0361270010471344,1.524999976158142,-1.4089000225067139,-0.761210024356842,5.418799877166748,10.145700454711914,-4.084000110626221,-3.6991000175476074,-1.624400019645691,-6.344399929046631,4.65749979019165,0.1698099970817566,-2.647900104522705,10.137399673461914,-1.3309999704360962,-5.470699787139893,1.7331000566482544,3.954400062561035,-4.741199970245361,-2.501699924468994,-2.698899984359741,12.198399543762207,0.676609992980957,-8.548199653625488,0.030218999832868576,-1.051200032234192,1.402400016784668,0.7736899852752686,-1.8583999872207642,7.886000156402588,-1.6642999649047852,-1.8384000062942505,-1.166700005531311,-1.423699975013733,2.924099922180176,0.6611899733543396,-0.786899983882904,9.566300392150879,-3.7867000102996826,-7.503399848937988,-3.379300117492676,-13.773099899291992,17.927400588989258,-2.0322999954223633,-1.5321999788284302,-5.09660005569458,6.6778998374938965,0.17497999966144562,0.3798399865627289,0.7097499966621399,0.7571600079536438,-0.4444099962711334,-0.7868899703025818,9.566300392150879,-3.7867000102996826,-7.503399848937988,-1.7860000133514404,-8.115699768066406,7.0858001708984375,-1.2111999988555908,0.1886799931526184,0.701479971408844,-0.5118200182914734,0.005589200183749199,-2.895699977874756,-12.020500183105469,11.914899826049805,-2.755199909210205,-2.9019999504089355,-7.656300067901611,11.83180046081543,-0.8426799774169922,-2.262500047683716,-0.09933499991893768,2.812700033187866,0.4866200089454651,0.5705999732017517,-0.024840999394655228,1.2421000003814697,-0.5620800256729126,-1.4375,-1.8624000549316406,4.026000022888184,0.5512700080871582,-0.786899983882904,9.566300392150879,-3.7867000102996826,-7.503399848937988,-0.6576700210571289,-2.801800012588501,3.7114999294281006,0.9973899722099304,-3.6960999965667725,-13.677900314331055,17.579500198364258,-2.6180999279022217,0.14328999817371368,-1.0885000228881836,1.0039000511169434,0.4879100024700165,-5.166100025177002,8.043299674987793,0.04426499828696251,-4.498300075531006,-2.329900026321411,-9.953200340270996,8.475600242614746,-1.8732999563217163,-1.8583999872207642,7.886000156402588,-1.6642999649047852,-1.8384000062942505,-0.5389999747276306,-5.166999816894531,3.4398999214172363,0.05214099958539009,2.391700029373169,4.55649995803833,-4.988800048828125,-2.898699998855591,-1.011199951171875,2.9983999729156494,-1.1663999557495117,-1.618499994277954,-0.38387998938560486,-1.0470999479293823,8.051400184631348,0.49566999077796936,-3.0866000652313232,-6.636199951171875,10.540499687194824,-0.8918200135231018,-0.17295999825000763,-1.1815999746322632,1.3818000555038452,0.7336000204086304,-2.5880000591278076,3.8654000759124756,-0.3336000144481659,-1.2797000408172607,-3.7300000190734863,-12.972299575805664,12.98169994354248,-2.684000015258789,0.6636499762535095,-0.04553300142288208,-0.18794000148773193,0.23446999490261078,0.21431000530719757,-0.6952900290489197,0.8771100044250488,0.29653000831604004,-1.1022000312805176,-5.8394999504089355,4.5640997886657715,0.6870499849319458,0.5705999732017517,-0.024800000712275505,1.2421000003814697,-0.5620999932289124,0.11738999933004379,6.276100158691406,-1.5494999885559082,-2.474600076675415,-0.4293999969959259,-0.14692999422550201,0.04426499828696251,-0.15604999661445618,0.5705999732017517,-0.024800000712275505,1.2421000003814697,-0.5620999932289124,-1.8974000215530396,3.5074000358581543,-1.7841999530792236,-3.849100112915039,3.476900100708008,-0.15313999354839325,2.5299999713897705,2.44950008392334,-5.385700225830078,9.121399879455566,-0.4192900061607361,-5.918099880218506,0.32919999957084656,-4.4552001953125,4.571800231933594,-0.9887999892234802,-1.8583999872207642,7.886000156402588,-1.6642999649047852,-1.8384000062942505,-4.002500057220459,-13.497900009155273,17.677200317382812,-3.320199966430664,-2.647900104522705,10.137399673461914,-1.3309999704360962,-5.470699787139893,-1.5951000452041626,-6.572000026702881,4.768899917602539,-0.9435399770736694,-5.490099906921387,9.1048002243042,-0.387580007314682,-5.97629976272583,0.3797999918460846,0.7098000049591064,0.7572000026702881,-0.44440001249313354,-3.079900026321411,0.6083599925041199,2.703900098800659,-0.23750999569892883,-1.732200026512146,-9.28279972076416,7.718999862670898,-1.7167999744415283,-4.224899768829346,6.269899845123291,0.15821999311447144,-5.5457000732421875,-3.8857998847961426,-12.846099853515625,12.795700073242188,-3.1352999210357666,-1.9666999578475952,11.80519962310791,-0.4047200083732605,-7.8719000816345215,0.5194699764251709,-3.2632999420166016,3.0894999504089355,-0.9849200248718262,0.3797999918460846,0.7098000049591064,0.7572000026702881,-0.44440001249313354,4.56790018081665,3.1928999423980713,-2.1054999828338623,0.29653000831604004,-2.2153000831604004,11.962499618530273,0.07853800058364868,-7.785299777984619,-1.6385999917984009,3.3584001064300537,-1.7302000522613525,-3.5645999908447266,-2.839099884033203,-6.630000114440918,10.48490047454834,-0.4211300015449524,-0.82600998878479,2.9611001014709473,-1.2863999605178833,-1.4646999835968018,-2.591900110244751,-1.055299997329712,3.89490008354187,0.7775700092315674,0.5705999732017517,-0.024800000712275505,1.2421000003814697,-0.5620999932289124,-1.444599986076355,2.1438000202178955,-0.4724099934101105,-1.6677000522613525,-2.0285000801086426,3.8468000888824463,-0.6343500018119812,-1.1749999523162842,-0.7728800177574158,-7.447299957275391,6.492000102996826,0.36118999123573303,0.3797999918460846,0.7098000049591064,0.7572000026702881,-0.44440001249313354,1.257200002670288,4.8730998039245605,-5.286099910736084,-5.874100208282471,-4.147900104522705,7.122499942779541,-0.08340399712324142,-6.417200088500977,2.1942999362945557,4.550300121307373,-4.97599983215332,-2.725399971008301,0.3180299997329712,-0.9932600259780884,1.0946999788284302,0.8861899971961975,0.32919999957084656,-4.4552001953125,4.571800231933594,-0.9887999892234802,-1.2568000555038452,-1.4732999801635742,2.871799945831299,0.4465300142765045,0.3901199996471405,-0.14279000461101532,-0.03199400007724762,0.3508400022983551,-0.4928100109100342,3.060499906539917,-1.8356000185012817,-2.8340001106262207,-0.5500800013542175,2.8659000396728516,-1.648800015449524,-2.4319000244140625,-1.2785999774932861,-2.4086999893188477,4.573500156402588,0.47626999020576477,0.32923999428749084,-4.4552001953125,4.571800231933594,-0.9887999892234802,-4.285900115966797,8.52340030670166,3.13919997215271,-0.9163900017738342,-1.388700008392334,-4.877299785614014,6.477399826049805,0.34178999066352844,-0.8940899968147278,3.1991000175476074,-1.8219000101089478,-2.945199966430664,-2.3429999351501465,12.951600074768066,3.3285000324249268,-5.942599773406982,-2.9098000526428223,-10.071200370788574,8.415599822998047,-1.9947999715805054,-2.4100000858306885,3.743299961090088,-0.4021500051021576,-1.295300006866455,-4.486100196838379,-13.288900375366211,17.308700561523438,-3.219399929046631,-0.04800799861550331,-1.603700041770935,8.475600242614746,0.7555800080299377,1.0399999618530273,-6.93209981918335,8.288800239562988,-1.2991000413894653,};
float sv_coef_dram[COEF_DIM_*F_DIM_] = {-6.548581121812447e-17,-0.7849577069282532,6.938893903907228e-17,1.3877787807814457e-17,-2.0,1.9845134019851685,2.0,1.473467469215393,-2.0,2.0,-0.2856181263923645,-0.9723341464996338,2.6020852139652106e-17,-0.9850012063980103,0.08578988164663315,1.3877787807814457e-17,0.0003593539586290717,-6.938893903907228e-18,-4.163336342344337e-17,0.3578260540962219,0.405646950006485,-0.7448899149894714,6.938893903907228e-18,-1.4622069597244263,4.380176776841438e-17,-2.42861286636753e-17,5.551115123125783e-17,-0.4803023636341095,1.3877787807814457e-17,-1.2712218761444092,1.8453967571258545,-0.929751992225647,1.1102230246251565e-16,-0.0011302930070087314,0.360085129737854,0.08768889307975769,-2.0,-0.5393582582473755,5.551115123125783e-17,1.1842385530471802,1.734723475976807e-17,0.35086333751678467,8.673617379884035e-19,-2.0,0.644767701625824,-0.03141869232058525,2.7755575615628914e-17,3.469446951953614e-18,2.0,0.00500564044341445,2.7755575615628914e-17,-0.8224663138389587,2.0,2.0,2.0,-1.3877787807814457e-17,0.0007821838953532279,1.3877787807814457e-17,0.00020198382844682783,0.0001811803231248632,2.0,2.0,1.3877787807814457e-17,-2.0,-0.5710319876670837,5.551115123125783e-17,-2.0,3.469446951953614e-18,-0.03975473716855049,2.0,-1.6101552248001099,-1.064339518547058,0.33943119645118713,-0.7680220007896423,0.36042171716690063,0.7465211153030396,-2.0,0.00041706213960424066,1.2680798768997192,1.3877787807814457e-17,2.7321894746634712e-17,-3.469446951953614e-18,-2.5153490401663703e-17,-2.0,-1.0752513408660889,-4.4615513616008684e-05,1.3877787807814457e-17,2.0816681711721685e-17,0.7783422470092773,0.000869935320224613,-2.0,6.938893903907228e-18,2.0,0.9921003580093384,-2.0,3.8163916471489756e-17,0.20476536452770233,0.29340860247612,0.830390214920044,-1.9631774425506592,5.204170427930421e-18,1.9815558195114136,0.8374864459037781,0.5726689100265503,2.0,-1.4622904062271118,-1.6975445747375488,2.0,8.736470044823363e-05,-0.0004919422790408134,6.938893903907228e-18,4.5102810375396984e-17,0.07066703587770462,-0.5012663006782532,-2.0,};
float bias_dram[1] = {0.10139858722686768};
